{"type":"NeuralNetwork","sizes":[2,50,1],"layers":[{"weights":[],"biases":[]},{"weights":[[-0.3121851980686188,0.290160596370697],[-0.2795720398426056,-0.11645223200321198],[-0.4320136606693268,0.6306588649749756],[-0.37219861149787903,-0.11121883988380432],[0.30148646235466003,-0.33481767773628235],[-0.44453859329223633,-0.10820843279361725],[-0.3986603319644928,0.6644065976142883],[-0.15563499927520752,-0.12784181535243988],[-0.42388051748275757,0.6461490392684937],[-0.34741926193237305,-0.11173932999372482],[-0.35656365752220154,-0.1116313561797142],[0.36689493060112,0.11016756296157837],[-0.34643757343292236,0.4727097451686859],[-0.3887878358364105,-0.11032813042402267],[0.38807862997055054,0.10964164137840271],[-0.38949158787727356,-0.1105986088514328],[0.2986654043197632,-0.3155493140220642],[-0.3272838890552521,-0.11221564561128616],[-0.31729599833488464,-0.11205441504716873],[0.3288443088531494,0.11042170971632004],[-0.33006900548934937,0.37531110644340515],[0.34882456064224243,0.1109185591340065],[-0.4149337112903595,0.5281922817230225],[0.3816348612308502,0.10992425680160522],[0.3365016579627991,-0.45419842004776],[-0.36128318309783936,-0.11169932782649994],[-0.4621085524559021,0.7570003271102905],[0.32815560698509216,0.11039811372756958],[0.3418221175670624,0.11040002107620239],[0.2792728841304779,0.1146589070558548],[0.29872214794158936,0.11110316962003708],[-0.4051569998264313,-0.10994090139865875],[-0.18382936716079712,0.19682276248931885],[-0.2784292995929718,0.25371745228767395],[-0.39590984582901,-0.11012442409992218],[-0.4014294147491455,0.6091302037239075],[-0.3709450960159302,-0.11097270995378494],[0.3009810745716095,-0.26681116223335266],[0.3352516293525696,0.1107177585363388],[-0.39983710646629333,-0.11003852635622025],[0.13599751889705658,-0.15892182290554047],[0.3464653193950653,0.11041047424077988],[0.33093592524528503,0.11108861118555069],[-0.32164841890335083,-0.1121881827712059],[0.3316480219364166,0.11111455410718918],[-0.3494049906730652,0.42989686131477356],[-0.3467912971973419,0.38785797357559204],[-0.3391024172306061,0.4506831169128418],[0.19098952412605286,0.11659187823534012],[-0.34288492798805237,-0.11189232766628265]],"biases":[0.15234248340129852,0.26921749114990234,0.7773277163505554,0.5532937049865723,-0.04548057168722153,1.0363484621047974,0.5539735555648804,0.14188942313194275,0.7211758494377136,0.36052098870277405,0.4348839521408081,-0.50762540102005,0.26680511236190796,0.6705407500267029,-0.6619794964790344,0.677885890007019,-0.03405807539820671,0.18934260308742523,0.10972609370946884,-0.2331300526857376,0.2018081545829773,-0.36757269501686096,0.7143422961235046,-0.6163111329078674,-0.2220085859298706,0.4725499451160431,0.92557692527771,-0.24680788815021515,-0.320225328207016,0.07885003089904785,-0.07922416925430298,0.7850972414016724,-0.0543847419321537,0.22765034437179565,0.720441460609436,0.5891590714454651,0.5425451993942261,-0.12040592730045319,-0.261643648147583,0.747867226600647,0.16859200596809387,-0.3548291325569153,-0.2211858630180359,0.1403961032629013,-0.22623689472675323,0.3144676685333252,0.31641608476638794,0.22566640377044678,0.14701035618782043,0.32363957166671753]},{"weights":[[-0.46665331721305847,-0.6202103495597839,-1.3110078573226929,-1.6283507347106934,0.26085925102233887,-1.9868905544281006,-1.2223312854766846,-0.3972977101802826,-1.292944073677063,-1.3283345699310303,-1.4691897630691528,1.0587760210037231,-0.8352473974227905,-1.5308550596237183,1.1954091787338257,-1.7365254163742065,0.2472541183233261,-1.211768388748169,-1.0114201307296753,0.7276724576950073,-0.6350653171539307,1.059870719909668,-1.1645758152008057,1.1885654926300049,0.49494439363479614,-1.6377925872802734,-1.589715600013733,0.6947459578514099,0.8463279604911804,0.48555779457092285,0.5528064966201782,-1.8004117012023926,-0.13928863406181335,-0.3277812898159027,-1.6067450046539307,-1.167902946472168,-1.4459339380264282,0.19396337866783142,0.8674001097679138,-1.6745624542236328,-0.1291755884885788,0.8944423198699951,0.9165621399879456,-1.1256167888641357,0.9320517778396606,-0.766466498374939,-0.7540370225906372,-0.7477301359176636,0.26646170020103455,-1.3174800872802734]],"biases":[-0.48584607243537903]}],"inputLookup":null,"inputLookupLength":0,"outputLookup":null,"outputLookupLength":0,"options":{"inputSize":2,"outputSize":1,"binaryThresh":0.5,"hiddenLayers":[50]},"trainOpts":{"activation":"sigmoid","iterations":20000,"errorThresh":0.005,"log":false,"logPeriod":10,"leakyReluAlpha":0.01,"learningRate":0.3,"momentum":0.1,"callbackPeriod":10,"timeout":"Infinity","beta1":0.9,"beta2":0.999,"epsilon":1e-8}}